{"cost": "CrossEntropyCost", "weights": [[[-0.552519023, -0.545482993, 11.4699945, 4.81514406], [0.183887005, 3.33293104, 2.72091293, 3.16665101], [-0.960330009, 2.9752779, 30.6358871, 11.8640442], [1.69774103, 1.84270406, -0.130728006, 0.368431002], [0.226280004, -0.257308006, 0.464426011, -0.526683986], [-1.03284204, 1.09345305, -32.3546219, -8.11742592], [-1.34503496, 0.263711989, -4.22843981, -1.43116701], [-0.327850014, -0.971790016, -2.10624099, 0.191484004], [-0.371497005, -1.04422104, 4.10142612, 1.83225596], [0.347894013, 0.753103971, -1.04689002, -2.6161921]], [[-1.26814699, 0.958097994, -0.656683028, -1.28409696, -1.45339, 0.737948, 0.233732998, 1.43371201, -0.917869985, -2.07348609], [0.821744978, 0.596183002, 0.149516001, -0.485074013, -1.35193896, -2.21705294, 3.2798419, -0.441242993, 2.19939399, 1.47075701], [0.897674978, 2.01019311, -0.0465909988, -4.84018087, 3.19196701, 0.803806007, -0.0509830005, -3.03517509, 1.49498403, -0.818377972], [1.82151198, 0.541103005, -0.400036991, -0.531322002, -2.240165, -0.332410991, -2.70173311, -1.78979695, 1.22179902, 1.16864097], [1.00917602, -1.50676501, -0.710682988, -1.07789004, -2.41819811, 6.68630219, -1.85821199, -3.32613492, 1.02651894, -2.36613989], [3.8827529, -15.5273504, 6.97111702, 13.2491245, 1.55542099, 1.03986001, 4.50055122, 4.51986885, -3.72785902, 5.71366501], [-4.28211403, 0.808405995, -0.251204997, -1.41359901, -2.80474901, -6.13927603, 6.88143921, -0.760510027, 4.77347183, 3.27841091], [1.30163503, 1.00827801, -0.453025013, -1.60462606, 0.054157, -2.43680406, -0.023395, -0.267001987, 0.191787004, 0.466719002], [-0.956848979, 1.03527105, 1.21763301, 1.91028297, -2.20199394, 1.56050003, -0.383679986, 0.678816974, 0.388770014, 0.538133979], [-0.220943004, 1.558954, 0.695245028, 0.946192026, 1.58655, -2.88302708, -1.38653898, -1.34946299, 1.32419801, 1.23030698]], [[13.1092453, 0.838240027, -12.132802, 16.7250938, 11.5564423, -6.18581104, 13.9528561, -11.2564383, 18.035223, 8.59825516], [16.0572376, 7.58986282, -14.4871225, 11.1528101, 10.5213366, -5.69596195, 13.6156015, -15.0240364, 16.7431393, 12.6961527], [18.251812, 14.8622284, -14.2735491, 9.32432747, 7.06989002, -2.92188692, 10.4128914, -16.5511036, 13.7190151, 13.2215919]]], "biases": [[[-0.553173006], [-3.09301305], [-0.377460003], [0.528769016], [-0.000686999992], [-3.1252389], [-1.93637705], [-0.144557998], [0.106160998], [-1.62567198]], [[1.88168001], [3.44275308], [-2.97617102], [1.10966301], [1.67248094], [-3.07737303], [2.70271897], [0.685018003], [2.44436598], [-1.19515896]]], "sizes": [4, 10, 10, 3]}